<?xml version="1.0"?>
<opencv_storage>
<stage13>
  <maxWeakCount>6</maxWeakCount>
  <stageThreshold>-4.1147056221961975e-01</stageThreshold>
  <weakClassifiers>
    <_>
      <internalNodes>
        0 -1 6158 -5.5781401693820953e-02</internalNodes>
      <leafValues>
        8.9473682641983032e-01 -2.5146198272705078e-01</leafValues></_>
    <_>
      <internalNodes>
        0 -1 162096 2.2491261188406497e-04</internalNodes>
      <leafValues>
        4.6739614009857178e-01 -8.4102696180343628e-01</leafValues></_>
    <_>
      <internalNodes>
        0 -1 9159 -7.1197763085365295e-02</internalNodes>
      <leafValues>
        8.1291306018829346e-01 -4.1820946335792542e-01</leafValues></_>
    <_>
      <internalNodes>
        0 -1 122981 -6.9780019111931324e-04</internalNodes>
      <leafValues>
        -8.2192236185073853e-01 4.4079846143722534e-01</leafValues></_>
    <_>
      <internalNodes>
        0 -1 117863 3.3656239975243807e-04</internalNodes>
      <leafValues>
        3.2190039753913879e-01 -9.6327126026153564e-01</leafValues></_>
    <_>
      <internalNodes>
        0 -1 161176 2.0599956042133272e-04</internalNodes>
      <leafValues>
        3.3652898669242859e-01 -9.2142850160598755e-01</leafValues></_></weakClassifiers></stage13>
</opencv_storage>
