<?xml version="1.0"?>
<opencv_storage>
<stage15>
  <maxWeakCount>6</maxWeakCount>
  <stageThreshold>-4.7377800941467285e-01</stageThreshold>
  <weakClassifiers>
    <_>
      <internalNodes>
        0 -1 134865 1.6253340989351273e-02</internalNodes>
      <leafValues>
        -2.6249998807907104e-01 8.1944441795349121e-01</leafValues></_>
    <_>
      <internalNodes>
        0 -1 4406 3.4601371735334396e-02</internalNodes>
      <leafValues>
        -4.6032199263572693e-01 6.9263005256652832e-01</leafValues></_>
    <_>
      <internalNodes>
        0 -1 12119 3.5376805812120438e-02</internalNodes>
      <leafValues>
        -3.7736237049102783e-01 7.6773363351821899e-01</leafValues></_>
    <_>
      <internalNodes>
        0 -1 1124 -3.1705829314887524e-04</internalNodes>
      <leafValues>
        -7.7734917402267456e-01 4.4383889436721802e-01</leafValues></_>
    <_>
      <internalNodes>
        0 -1 138350 8.9210001751780510e-03</internalNodes>
      <leafValues>
        -4.2506179213523865e-01 8.1919097900390625e-01</leafValues></_>
    <_>
      <internalNodes>
        0 -1 49815 1.5013333410024643e-02</internalNodes>
      <leafValues>
        -3.9822313189506531e-01 7.5230818986892700e-01</leafValues></_></weakClassifiers></stage15>
</opencv_storage>
